<?xml version="1.0" encoding="ISO-8859-1"?>
<!-- This network was created in GeNIe Academic, which can be used for educational and research purposes only -->
<smile version="1.0" id="Unnamed" numsamples="1000" discsamples="10000">
	<nodes>
		<cpt id="V_IIRead_Dilemma1">
			<state id="State0" />
			<state id="State1" />
			<state id="State2" />
			<state id="State3" />
			<state id="State4" />
			<state id="State5" />
			<probabilities>0.2040998217468805 0.04901960784313725 0.06506238859180034 0.1185383244206774 0.08645276292335116 0.4768270944741533</probabilities>
		</cpt>
		<cpt id="V_IIRead_Dilemma2">
			<state id="State0" />
			<state id="State1" />
			<state id="State2" />
			<state id="State3" />
			<state id="State4" />
			<state id="State5" />
			<parents>V_IIRead_Dilemma1</parents>
			<probabilities>0.6965811965811965 0.05555555555555555 0.02991452991452992 0.02991452991452992 0.05555555555555555 0.1324786324786325 0.4166666666666667 0.01666666666666667 0.2166666666666667 0.01666666666666667 0.1166666666666667 0.2166666666666667 0.2435897435897436 0.1666666666666667 0.2435897435897436 0.1666666666666667 0.08974358974358976 0.08974358974358976 0.3550724637681159 0.09420289855072463 0.2681159420289855 0.09420289855072463 0.1376811594202899 0.05072463768115942 0.1274509803921569 0.009803921568627451 0.06862745098039216 0.4215686274509804 0.1862745098039215 0.1862745098039215 0.1351851851851852 0.02407407407407407 0.03518518518518519 0.01296296296296296 0.01296296296296296 0.7796296296296297</probabilities>
		</cpt>
		<cpt id="V_IIRead_Dilemma3">
			<state id="State0" />
			<state id="State1" />
			<state id="State2" />
			<state id="State3" />
			<state id="State4" />
			<state id="State5" />
			<parents>V_IIRead_Dilemma2</parents>
			<probabilities>0.4590643274853801 0.07309941520467836 0.05555555555555555 0.108187134502924 0.09064327485380116 0.2134502923976608 0.01851851851851851 0.4629629629629629 0.1296296296296296 0.1296296296296296 0.1296296296296296 0.1296296296296296 0.009803921568627451 0.1274509803921569 0.2450980392156863 0.3627450980392157 0.1274509803921569 0.1274509803921569 0.0119047619047619 0.0119047619047619 0.2976190476190476 0.3690476190476191 0.2261904761904762 0.08333333333333333 0.09722222222222224 0.09722222222222224 0.09722222222222224 0.1805555555555556 0.2638888888888889 0.2638888888888889 0.002008032128514056 0.002008032128514056 0.01405622489959839 0.03815261044176707 0.03815261044176707 0.9056224899598395</probabilities>
		</cpt>
		<cpt id="V_IIRead_Dilemma4">
			<state id="State0" />
			<state id="State1" />
			<state id="State2" />
			<state id="State3" />
			<state id="State4" />
			<state id="State5" />
			<parents>V_IIRead_Dilemma3</parents>
			<probabilities>0.8273809523809523 0.005952380952380952 0.005952380952380952 0.04166666666666666 0.1130952380952381 0.005952380952380952 0.3472222222222222 0.1805555555555555 0.1805555555555555 0.09722222222222222 0.09722222222222222 0.09722222222222222 0.2111111111111111 0.2111111111111111 0.4111111111111111 0.07777777777777778 0.01111111111111111 0.07777777777777778 0.298611111111111 0.0486111111111111 0.2152777777777777 0.298611111111111 0.0486111111111111 0.09027777777777775 0.1203703703703703 0.1203703703703703 0.2314814814814815 0.06481481481481481 0.1203703703703703 0.3425925925925926 0.1596491228070175 0.02280701754385965 0.001754385964912281 0.0543859649122807 0.04385964912280702 0.7175438596491228</probabilities>
		</cpt>
		<cpt id="V_IIRead_Dilemma5">
			<state id="State0" />
			<state id="State1" />
			<state id="State2" />
			<state id="State3" />
			<state id="State4" />
			<state id="State5" />
			<parents>V_IIRead_Dilemma3</parents>
			<probabilities>0.8988095238095238 0.005952380952380952 0.005952380952380952 0.04166666666666666 0.005952380952380952 0.04166666666666666 0.5138888888888888 0.2638888888888888 0.01388888888888889 0.01388888888888889 0.01388888888888889 0.1805555555555555 0.2777777777777778 0.07777777777777778 0.4777777777777778 0.07777777777777778 0.01111111111111111 0.07777777777777778 0.2569444444444444 0.09027777777777776 0.3402777777777777 0.1319444444444444 0.1319444444444444 0.04861111111111111 0.06481481481481481 0.06481481481481481 0.2314814814814815 0.287037037037037 0.1759259259259259 0.1759259259259259 0.1175438596491228 0.03333333333333333 0.02280701754385965 0.03333333333333333 0.06491228070175439 0.7280701754385965</probabilities>
		</cpt>
		<cpt id="V_IIRead_Dilemma6">
			<state id="State0" />
			<state id="State1" />
			<state id="State2" />
			<state id="State3" />
			<state id="State4" />
			<state id="State5" />
			<parents>V_IIRead_Dilemma2 V_IIRead_Dilemma4</parents>
			<probabilities>0.7401960784313726 0.03431372549019608 0.09313725490196077 0.03431372549019608 0.004901960784313725 0.09313725490196077 0.4333333333333333 0.2333333333333334 0.03333333333333333 0.03333333333333333 0.03333333333333333 0.2333333333333334 0.7222222222222222 0.05555555555555556 0.05555555555555556 0.05555555555555556 0.05555555555555556 0.05555555555555556 0.04166666666666666 0.04166666666666666 0.04166666666666666 0.5416666666666666 0.04166666666666666 0.2916666666666667 0.4333333333333333 0.03333333333333333 0.03333333333333333 0.03333333333333333 0.4333333333333333 0.03333333333333333 0.01515151515151515 0.196969696969697 0.01515151515151515 0.1060606060606061 0.1060606060606061 0.5606060606060607 0.7916666666666669 0.04166666666666667 0.04166666666666667 0.04166666666666667 0.04166666666666667 0.04166666666666667 0.05555555555555556 0.05555555555555556 0.7222222222222222 0.05555555555555556 0.05555555555555556 0.05555555555555556 0.5833333333333334 0.08333333333333333 0.08333333333333333 0.08333333333333333 0.08333333333333333 0.08333333333333333 0.1666666666666667 0.1666666666666667 0.1666666666666667 0.1666666666666667 0.1666666666666667 0.1666666666666667 0.08333333333333333 0.5833333333333334 0.08333333333333333 0.08333333333333333 0.08333333333333333 0.08333333333333333 0.08333333333333333 0.08333333333333333 0.08333333333333333 0.08333333333333333 0.08333333333333333 0.5833333333333334 0.05555555555555556 0.05555555555555556 0.7222222222222222 0.05555555555555556 0.05555555555555556 0.05555555555555556 0.5833333333333334 0.08333333333333333 0.08333333333333333 0.08333333333333333 0.08333333333333333 0.08333333333333333 0.02380952380952381 0.02380952380952381 0.3095238095238095 0.4523809523809523 0.02380952380952381 0.1666666666666667 0.2916666666666667 0.04166666666666667 0.5416666666666667 0.04166666666666667 0.04166666666666667 0.04166666666666667 0.1666666666666667 0.1666666666666667 0.1666666666666667 0.1666666666666667 0.1666666666666667 0.1666666666666667 0.2333333333333334 0.03333333333333333 0.2333333333333334 0.2333333333333334 0.03333333333333333 0.2333333333333334 0.7222222222222222 0.05555555555555556 0.05555555555555556 0.05555555555555556 0.05555555555555556 0.05555555555555556 0.05555555555555556 0.05555555555555556 0.05555555555555556 0.7222222222222222 0.05555555555555556 0.05555555555555556 0.6333333333333333 0.03333333333333333 0.03333333333333333 0.2333333333333334 0.03333333333333333 0.03333333333333333 0.2333333333333334 0.03333333333333333 0.2333333333333334 0.2333333333333334 0.03333333333333333 0.2333333333333334 0.1666666666666667 0.1666666666666667 0.1666666666666667 0.1666666666666667 0.1666666666666667 0.1666666666666667 0.08333333333333333 0.08333333333333333 0.08333333333333333 0.5833333333333334 0.08333333333333333 0.08333333333333333 0.6333333333333333 0.03333333333333333 0.03333333333333333 0.03333333333333333 0.2333333333333334 0.03333333333333333 0.1666666666666667 0.1666666666666667 0.1666666666666667 0.1666666666666667 0.1666666666666667 0.1666666666666667 0.2333333333333334 0.03333333333333333 0.4333333333333333 0.03333333333333333 0.03333333333333333 0.2333333333333334 0.1666666666666667 0.1666666666666667 0.1666666666666667 0.1666666666666667 0.1666666666666667 0.1666666666666667 0.05555555555555555 0.05555555555555555 0.05555555555555555 0.3888888888888889 0.3888888888888889 0.05555555555555555 0.08333333333333333 0.08333333333333333 0.08333333333333333 0.5833333333333334 0.08333333333333333 0.08333333333333333 0.6515151515151516 0.01515151515151515 0.01515151515151515 0.01515151515151515 0.1060606060606061 0.196969696969697 0.08333333333333333 0.08333333333333333 0.08333333333333333 0.08333333333333333 0.08333333333333333 0.5833333333333334 0.1666666666666667 0.1666666666666667 0.1666666666666667 0.1666666666666667 0.1666666666666667 0.1666666666666667 0.02380952380952381 0.02380952380952381 0.02380952380952381 0.02380952380952381 0.4523809523809523 0.4523809523809523 0.03333333333333333 0.03333333333333333 0.03333333333333333 0.2333333333333334 0.03333333333333333 0.6333333333333333 0.1317204301075269 0.01881720430107527 0.002688172043010752 0.01881720430107527 0.002688172043010752 0.825268817204301</probabilities>
		</cpt>
		<cpt id="V_IIRead_Dilemma7">
			<state id="State0" />
			<state id="State1" />
			<state id="State2" />
			<state id="State3" />
			<state id="State4" />
			<state id="State5" />
			<parents>V_IIRead_Dilemma3 V_IIRead_Dilemma6</parents>
			<probabilities>0.8402777777777777 0.006944444444444442 0.006944444444444442 0.006944444444444442 0.006944444444444442 0.1319444444444444 0.08333333333333333 0.08333333333333333 0.08333333333333333 0.08333333333333333 0.08333333333333333 0.5833333333333334 0.1666666666666667 0.1666666666666667 0.1666666666666667 0.1666666666666667 0.1666666666666667 0.1666666666666667 0.08333333333333333 0.08333333333333333 0.5833333333333334 0.08333333333333333 0.08333333333333333 0.08333333333333333 0.08333333333333333 0.08333333333333333 0.08333333333333333 0.08333333333333333 0.08333333333333333 0.5833333333333334 0.08333333333333333 0.08333333333333333 0.08333333333333333 0.5833333333333334 0.08333333333333333 0.08333333333333333 0.5208333333333334 0.02083333333333333 0.2708333333333333 0.02083333333333333 0.02083333333333333 0.1458333333333333 0.08333333333333333 0.5833333333333334 0.08333333333333333 0.08333333333333333 0.08333333333333333 0.08333333333333333 0.5833333333333334 0.08333333333333333 0.08333333333333333 0.08333333333333333 0.08333333333333333 0.08333333333333333 0.08333333333333333 0.08333333333333333 0.08333333333333333 0.08333333333333333 0.08333333333333333 0.5833333333333334 0.1666666666666667 0.1666666666666667 0.1666666666666667 0.1666666666666667 0.1666666666666667 0.1666666666666667 0.08333333333333333 0.08333333333333333 0.08333333333333333 0.08333333333333333 0.08333333333333333 0.5833333333333334 0.6333333333333333 0.03333333333333333 0.03333333333333333 0.2333333333333334 0.03333333333333333 0.03333333333333333 0.1666666666666667 0.1666666666666667 0.1666666666666667 0.1666666666666667 0.1666666666666667 0.1666666666666667 0.2333333333333334 0.03333333333333333 0.03333333333333333 0.6333333333333333 0.03333333333333333 0.03333333333333333 0.05555555555555555 0.05555555555555555 0.3888888888888889 0.3888888888888889 0.05555555555555555 0.05555555555555555 0.08333333333333333 0.08333333333333333 0.08333333333333333 0.08333333333333333 0.08333333333333333 0.5833333333333334 0.04166666666666666 0.04166666666666666 0.04166666666666666 0.5416666666666666 0.04166666666666666 0.2916666666666667 0.1944444444444444 0.02777777777777778 0.1944444444444444 0.361111111111111 0.1944444444444444 0.02777777777777778 0.1666666666666667 0.1666666666666667 0.1666666666666667 0.1666666666666667 0.1666666666666667 0.1666666666666667 0.1666666666666667 0.02380952380952381 0.02380952380952381 0.4523809523809523 0.02380952380952381 0.3095238095238095 0.2708333333333333 0.2708333333333333 0.02083333333333333 0.2708333333333333 0.1458333333333333 0.02083333333333333 0.05555555555555555 0.05555555555555555 0.05555555555555555 0.05555555555555555 0.05555555555555555 0.7222222222222221 0.04166666666666666 0.04166666666666666 0.04166666666666666 0.04166666666666666 0.04166666666666666 0.7916666666666666 0.3095238095238095 0.1666666666666667 0.02380952380952381 0.1666666666666667 0.02380952380952381 0.3095238095238095 0.08333333333333333 0.08333333333333333 0.08333333333333333 0.08333333333333333 0.08333333333333333 0.5833333333333334 0.5416666666666667 0.04166666666666667 0.2916666666666667 0.04166666666666667 0.04166666666666667 0.04166666666666667 0.04166666666666666 0.2916666666666667 0.04166666666666666 0.2916666666666667 0.04166666666666666 0.2916666666666667 0.04166666666666666 0.04166666666666666 0.04166666666666666 0.04166666666666666 0.04166666666666666 0.7916666666666666 0.5833333333333334 0.08333333333333333 0.08333333333333333 0.08333333333333333 0.08333333333333333 0.08333333333333333 0.587719298245614 0.008771929824561403 0.008771929824561403 0.008771929824561403 0.008771929824561403 0.3771929824561404 0.2916666666666667 0.04166666666666666 0.2916666666666667 0.04166666666666666 0.04166666666666666 0.2916666666666667 0.08333333333333333 0.08333333333333333 0.08333333333333333 0.08333333333333333 0.08333333333333333 0.5833333333333334 0.5416666666666666 0.04166666666666666 0.04166666666666666 0.04166666666666666 0.04166666666666666 0.2916666666666667 0.05555555555555556 0.05555555555555556 0.05555555555555556 0.05555555555555556 0.7222222222222222 0.05555555555555556 0.01715686274509804 0.002450980392156863 0.01715686274509804 0.002450980392156863 0.03186274509803921 0.9289215686274509</probabilities>
		</cpt>
		<cpt id="V_IIRead_Dilemma8">
			<state id="State0" />
			<state id="State1" />
			<state id="State2" />
			<state id="State3" />
			<state id="State4" />
			<state id="State5" />
			<parents>V_IIRead_Dilemma7</parents>
			<probabilities>0.7067901234567902 0.0771604938271605 0.04012345679012346 0.0771604938271605 0.00308641975308642 0.09567901234567903 0.361111111111111 0.02777777777777778 0.1944444444444444 0.1944444444444444 0.02777777777777778 0.1944444444444444 0.2407407407407407 0.01851851851851852 0.1296296296296296 0.3518518518518518 0.1296296296296296 0.1296296296296296 0.1759259259259259 0.06481481481481481 0.1759259259259259 0.3425925925925926 0.009259259259259259 0.2314814814814815 0.02380952380952381 0.1666666666666667 0.02380952380952381 0.1666666666666667 0.02380952380952381 0.5952380952380952 0.1037414965986394 0.03231292517006802 0.001700680272108843 0.02210884353741496 0.08333333333333331 0.7568027210884354</probabilities>
		</cpt>
	</nodes>
	<cases>
		<case name="Read0at1">
			<evidence node="V_IIRead_Dilemma1" state="State0" />
		</case>
	</cases>
	<extensions>
		<genie version="1.0" app="GeNIe 2.1.1104.0 ACADEMIC" name="NaziBBQ_v2____Only_NumberAdvicesOpenedLevel_Per_Dilemma" faultnameformat="nodestate">
			<node id="V_IIRead_Dilemma1">
				<name>V_IIRead_Dilemma1</name>
				<interior color="e5f6f7" />
				<outline color="000080" />
				<font color="000000" name="Arial" size="8" />
				<position>134 68 206 116</position>
				<barchart active="true" width="128" height="126" />
			</node>
			<node id="V_IIRead_Dilemma2">
				<name>V_IIRead_Dilemma2</name>
				<interior color="e5f6f7" />
				<outline color="000080" />
				<font color="000000" name="Arial" size="8" />
				<position>134 263 206 311</position>
				<barchart active="true" width="128" height="126" />
			</node>
			<node id="V_IIRead_Dilemma3">
				<name>V_IIRead_Dilemma3</name>
				<interior color="e5f6f7" />
				<outline color="000080" />
				<font color="000000" name="Arial" size="8" />
				<position>395 418 467 466</position>
				<barchart active="true" width="128" height="126" />
			</node>
			<node id="V_IIRead_Dilemma4">
				<name>V_IIRead_Dilemma4</name>
				<interior color="e5f6f7" />
				<outline color="000080" />
				<font color="000000" name="Arial" size="8" />
				<position>395 239 467 287</position>
				<barchart active="true" width="128" height="126" />
			</node>
			<node id="V_IIRead_Dilemma5">
				<name>V_IIRead_Dilemma5</name>
				<interior color="e5f6f7" />
				<outline color="000080" />
				<font color="000000" name="Arial" size="8" />
				<position>640 418 712 466</position>
				<barchart active="true" width="128" height="126" />
			</node>
			<node id="V_IIRead_Dilemma6">
				<name>V_IIRead_Dilemma6</name>
				<interior color="e5f6f7" />
				<outline color="000080" />
				<font color="000000" name="Arial" size="8" />
				<position>395 72 467 120</position>
				<barchart active="true" width="128" height="126" />
			</node>
			<node id="V_IIRead_Dilemma7">
				<name>V_IIRead_Dilemma7</name>
				<interior color="e5f6f7" />
				<outline color="000080" />
				<font color="000000" name="Arial" size="8" />
				<position>640 162 712 210</position>
				<barchart active="true" width="128" height="126" />
			</node>
			<node id="V_IIRead_Dilemma8">
				<name>V_IIRead_Dilemma8</name>
				<interior color="e5f6f7" />
				<outline color="000080" />
				<font color="000000" name="Arial" size="8" />
				<position>861 162 933 210</position>
				<barchart active="true" width="128" height="126" />
			</node>
			<textbox>
				<caption>Input file: NaziBBQ v2 -- Only NumberAdvicesOpenedLevel Per Dilemma\nData rows: 186\n\nLearning algorithm: Bayesian Search\nElapsed time: 0.047 seconds\nBest score in iteration 2: -1924.3\n\nAlgorithm parameters:\nMax parent count: 8\nIterations: 20\nSample size: 50\nSeed: 0\nLink probability: 0.1\nPrior link probability: 0.001\nMax search time: 0\nUse accuracy as score: no\nBackground knowledge was provided:\n  nodes assigned to tiers: 8</caption>
				<font color="000000" name="Arial" size="8" />
				<position>28 578 373 830</position>
			</textbox>
		</genie>
	</extensions>
</smile>
